digraph Tree {
node [shape=box, style="rounded", color="black", fontname=helvetica] ;
edge [fontname=helvetica] ;
0 [label="higher_no <= 0.5\nmse = 19.0\nsamples = 184\nvalue = 10.8"] ;
1 [label="Medu <= 2.5\nmse = 16.8\nsamples = 175\nvalue = 11.1"] ;
0 -> 1 [labeldistance=2.5, labelangle=45, headlabel="True"] ;
2 [label="absences <= 0.5\nmse = 15.7\nsamples = 68\nvalue = 9.7"] ;
1 -> 2 ;
3 [label="mse = 40.9\nsamples = 16\nvalue = 7.2"] ;
2 -> 3 ;
4 [label="mse = 6.2\nsamples = 52\nvalue = 10.4"] ;
2 -> 4 ;
5 [label="schoolsup_yes <= 0.5\nmse = 15.4\nsamples = 107\nvalue = 12.0"] ;
1 -> 5 ;
6 [label="mse = 12.7\nsamples = 87\nvalue = 12.8"] ;
5 -> 6 ;
7 [label="mse = 9.4\nsamples = 20\nvalue = 7.9"] ;
5 -> 7 ;
8 [label="absences <= 1.0\nmse = 24.2\nsamples = 9\nvalue = 4.4"] ;
0 -> 8 [labeldistance=2.5, labelangle=-45, headlabel="False"] ;
9 [label="internet_no <= 0.5\nmse = 5.4\nsamples = 6\nvalue = 0.9"] ;
8 -> 9 ;
10 [label="mse = 0.0\nsamples = 5\nvalue = 0.0"] ;
9 -> 10 ;
11 [label="mse = 0.0\nsamples = 1\nvalue = 7.0"] ;
9 -> 11 ;
12 [label="address_U <= 0.5\nmse = 3.2\nsamples = 3\nvalue = 10.0"] ;
8 -> 12 ;
13 [label="mse = 0.0\nsamples = 1\nvalue = 12.0"] ;
12 -> 13 ;
14 [label="mse = 0.9\nsamples = 2\nvalue = 8.7"] ;
12 -> 14 ;
}